<?xml version="1.0"?>
<opencv_storage>
<stage16>
  <maxWeakCount>8</maxWeakCount>
  <stageThreshold>-1.2177586555480957e+00</stageThreshold>
  <weakClassifiers>
    <_>
      <internalNodes>
        0 -1 46 -356876306 -193265744 -1 1917976445 -210 -151584931
        -268468289 -705308201</internalNodes>
      <leafValues>
        -4.4198405742645264e-01 5.4996067285537720e-01</leafValues></_>
    <_>
      <internalNodes>
        0 -1 37450 -286382313 -16401 2147434225 2146041783 -2049 -589825
        -65794 -319504393</internalNodes>
      <leafValues>
        -3.3117055892944336e-01 6.3971877098083496e-01</leafValues></_>
    <_>
      <internalNodes>
        0 -1 39388 672030047 -1424146032 286326935 650006926 -218078231
        -1081998458 807048317 -1126918144</internalNodes>
      <leafValues>
        -5.1249957084655762e-01 4.2021432518959045e-01</leafValues></_>
    <_>
      <internalNodes>
        0 -1 60841 -900441891 1342455809 -1056893749 -247267171
        -888651605 -2138996608 -1987919687 -1343601687</internalNodes>
      <leafValues>
        -4.8312351107597351e-01 4.4321426749229431e-01</leafValues></_>
    <_>
      <internalNodes>
        0 -1 37630 -1517161601 -462749637 1082216851 -1072216821
        -1991062693 -1708064638 -1194182193 -325268491</internalNodes>
      <leafValues>
        -4.9681144952774048e-01 4.4814890623092651e-01</leafValues></_>
    <_>
      <internalNodes>
        0 -1 45551 1528119884 2457687 82190 -2062122998 1342382585
        2072543369 -1031157624 821680205</internalNodes>
      <leafValues>
        -6.2649977207183838e-01 3.8104134798049927e-01</leafValues></_>
    <_>
      <internalNodes>
        0 -1 50745 -788281115 -754909179 -2122251901 -268238588
        -2147479545 -637534070 -1450995163 -23792908</internalNodes>
      <leafValues>
        -6.3177865743637085e-01 3.4767663478851318e-01</leafValues></_>
    <_>
      <internalNodes>
        0 -1 39440 424440821 -1828470521 -1056931709 859947147 8495659
        -803176446 1073760811 998534683</internalNodes>
      <leafValues>
        -6.1025136709213257e-01 3.7318757176399231e-01</leafValues></_></weakClassifiers></stage16>
</opencv_storage>
