<?xml version="1.0"?>
<opencv_storage>
<stage12>
  <maxWeakCount>7</maxWeakCount>
  <stageThreshold>-8.2922488451004028e-01</stageThreshold>
  <weakClassifiers>
    <_>
      <internalNodes>
        0 -1 55928 -358135771 -548867 -16842889 2113929215 -8979204
        -1076076673 -896991233 -9401813</internalNodes>
      <leafValues>
        -4.4075021147727966e-01 5.8435207605361938e-01</leafValues></_>
    <_>
      <internalNodes>
        0 -1 36721 -178539553 1238593803 -1995063039 -961216304
        -805246813 -787807347 -1995729807 1312095109</internalNodes>
      <leafValues>
        -6.3902431726455688e-01 3.4567603468894958e-01</leafValues></_>
    <_>
      <internalNodes>
        0 -1 64729 -1562858877 18038787 86017 -519995375 158336
        101744705 -1056185687 1091545295</internalNodes>
      <leafValues>
        -4.8558184504508972e-01 4.3226668238639832e-01</leafValues></_>
    <_>
      <internalNodes>
        0 -1 46707 -1041135321 -460259309 85541087 1858605207 1241629051
        -340524918 -888477339 -88327839</internalNodes>
      <leafValues>
        -5.6960058212280273e-01 4.0540197491645813e-01</leafValues></_>
    <_>
      <internalNodes>
        0 -1 6957 1334245821 -434745336 1342406941 1360400800 -637427575
        -2063269760 873189583 -1244574829</internalNodes>
      <leafValues>
        -5.3297334909439087e-01 3.9779159426689148e-01</leafValues></_>
    <_>
      <internalNodes>
        0 -1 2732 2026844511 1359466755 268505235 -188198895 1216704517
        -788430843 -1064605649 1968417271</internalNodes>
      <leafValues>
        -4.4377189874649048e-01 5.0958800315856934e-01</leafValues></_>
    <_>
      <internalNodes>
        0 -1 59711 596145617 -1744334461 1344307680 302506459 993751439
        458760 -2139010129 1587313593</internalNodes>
      <leafValues>
        -5.6373369693756104e-01 3.8303017616271973e-01</leafValues></_></weakClassifiers></stage12>
</opencv_storage>
