<?xml version="1.0"?>
<opencv_storage>
<stage14>
  <maxWeakCount>7</maxWeakCount>
  <stageThreshold>-7.7440220117568970e-01</stageThreshold>
  <weakClassifiers>
    <_>
      <internalNodes>
        0 -1 37261 -823267803 -8519761 -285212677 2013265791 2147483645
        -8388993 -16912643 -1532645521</internalNodes>
      <leafValues>
        -4.3443354964256287e-01 5.3713840246200562e-01</leafValues></_>
    <_>
      <internalNodes>
        0 -1 515 -360825549 2096267070 -3 935002109 -16777345 -573441
        -1124106378 -143392941</internalNodes>
      <leafValues>
        -3.7501847743988037e-01 5.5752527713775635e-01</leafValues></_>
    <_>
      <internalNodes>
        0 -1 39476 105543671 -1106837401 1342251099 1070026879 453984349
        -72679033 1898598955 784104011</internalNodes>
      <leafValues>
        -5.8851844072341919e-01 3.5726326704025269e-01</leafValues></_>
    <_>
      <internalNodes>
        0 -1 61187 -1853830019 1367949389 37002 -234789989 -1046942869
        -645791616 -1735382304 -1158561755</internalNodes>
      <leafValues>
        -5.0676149129867554e-01 3.9118909835815430e-01</leafValues></_>
    <_>
      <internalNodes>
        0 -1 13153 -1073676188 152109056 268566592 319881217 -2013265917
        -2142765056 4948157 1962575823</internalNodes>
      <leafValues>
        -5.5200803279876709e-01 3.6123251914978027e-01</leafValues></_>
    <_>
      <internalNodes>
        0 -1 40611 -1055976673 -116322215 -2130702335 -464256877
        -2136882669 -670924664 940149522 -72697192</internalNodes>
      <leafValues>
        -6.0692965984344482e-01 3.4649050235748291e-01</leafValues></_>
    <_>
      <internalNodes>
        0 -1 29809 1145106636 626082193 321 -1357774848 268470811
        -1191608166 -652689379 701221342</internalNodes>
      <leafValues>
        -4.6770539879798889e-01 4.5792073011398315e-01</leafValues></_></weakClassifiers></stage14>
</opencv_storage>
