<?xml version="1.0"?>
<opencv_storage>
<stage19>
  <maxWeakCount>9</maxWeakCount>
  <stageThreshold>-9.0563654899597168e-01</stageThreshold>
  <weakClassifiers>
    <_>
      <internalNodes>
        0 -1 59801 -390308611 1073372861 -4194369 -4227137 -21102596
        -1073807361 -17416449 -1363509313</internalNodes>
      <leafValues>
        -3.8666665554046631e-01 5.5333334207534790e-01</leafValues></_>
    <_>
      <internalNodes>
        0 -1 64880 -1342967961 -272629762 -86034 -268451905 2147411924
        -1375731723 796679677 -865354245</internalNodes>
      <leafValues>
        -3.8854923844337463e-01 5.0715714693069458e-01</leafValues></_>
    <_>
      <internalNodes>
        0 -1 3185 339873141 827359747 -1861365737 -1107249085 -888524028
        -1442332530 403245057 -1365749755</internalNodes>
      <leafValues>
        -5.6277155876159668e-01 3.5905081033706665e-01</leafValues></_>
    <_>
      <internalNodes>
        0 -1 37024 1895856637 424788233 -1862270499 -1363148347
        -1735616341 -477560573 1099696401 2056814640</internalNodes>
      <leafValues>
        -5.3059107065200806e-01 3.8764587044715881e-01</leafValues></_>
    <_>
      <internalNodes>
        0 -1 15024 -8520067 -419465218 -1094714113 1757347563 -8916993
        -16777217 -2363523 -1879113891</internalNodes>
      <leafValues>
        -4.3177598714828491e-01 4.9359008669853210e-01</leafValues></_>
    <_>
      <internalNodes>
        0 -1 56163 -1043920261 -782958517 67207193 277090369 -1979006464
        -2105442303 165009 -1375460292</internalNodes>
      <leafValues>
        -6.5023607015609741e-01 2.9338774085044861e-01</leafValues></_>
    <_>
      <internalNodes>
        0 -1 60381 -1982754803 1510998361 302055809 -1040187391
        -930827653 -377421816 -1593210764 2623792</internalNodes>
      <leafValues>
        -6.8354535102844238e-01 3.0926033854484558e-01</leafValues></_>
    <_>
      <internalNodes>
        0 -1 2969 1559723988 -385875969 2147450687 -1612009555
        2147483541 1560248319 -161 1270595517</internalNodes>
      <leafValues>
        -4.2400875687599182e-01 5.4212403297424316e-01</leafValues></_>
    <_>
      <internalNodes>
        0 -1 7911 1360105808 -301465582 -2147483297 169414656 536904912
        -2128936951 -1852583933 -2036938075</internalNodes>
      <leafValues>
        -5.7477724552154541e-01 3.5969045758247375e-01</leafValues></_></weakClassifiers></stage19>
</opencv_storage>
