<?xml version="1.0"?>
<opencv_storage>
<stage18>
  <maxWeakCount>8</maxWeakCount>
  <stageThreshold>-1.3509368896484375e+00</stageThreshold>
  <weakClassifiers>
    <_>
      <internalNodes>
        0 -1 110 -22024542 -230686798 -16777231 -1309802504 -33
        -16777463 -161 -1043505057</internalNodes>
      <leafValues>
        -3.6356142163276672e-01 5.4001682996749878e-01</leafValues></_>
    <_>
      <internalNodes>
        0 -1 35074 -1900740612 -2112171516 -2147401057 1851494425
        -1702753221 -1432190911 -243094609 -285677140</internalNodes>
      <leafValues>
        -5.1103812456130981e-01 3.8946712017059326e-01</leafValues></_>
    <_>
      <internalNodes>
        0 -1 32156 -205196299 -49948621 -1072955305 1725843787
        -872242997 -620593021 -256669505 -75705552</internalNodes>
      <leafValues>
        -4.5274803042411804e-01 4.4166088104248047e-01</leafValues></_>
    <_>
      <internalNodes>
        0 -1 42440 -675876201 -1434418887 1073856586 240423259
        -1711128558 -1341980439 1661702755 1853678053</internalNodes>
      <leafValues>
        -6.4825093746185303e-01 2.9652473330497742e-01</leafValues></_>
    <_>
      <internalNodes>
        0 -1 58628 -1424842460 16826626 1073741842 1073807363 25380801
        -133824255 180239 234857671</internalNodes>
      <leafValues>
        -5.1791310310363770e-01 3.8545858860015869e-01</leafValues></_>
    <_>
      <internalNodes>
        0 -1 50293 -250502773 -449772535 1413599839 -165773037
        -2004835781 -624230365 -1593599883 2134411300</internalNodes>
      <leafValues>
        -6.3676685094833374e-01 3.1585982441902161e-01</leafValues></_>
    <_>
      <internalNodes>
        0 -1 22557 -379116777 -1945042923 268439939 1376260117
        -1744199629 537001985 -1073510361 -929527759</internalNodes>
      <leafValues>
        -6.0930329561233521e-01 3.1735834479331970e-01</leafValues></_>
    <_>
      <internalNodes>
        0 -1 66484 242535943 1073692671 -16842753 795308027 -268567467
        -555745291 -153313283 -1065404513</internalNodes>
      <leafValues>
        -4.0926268696784973e-01 4.8622307181358337e-01</leafValues></_></weakClassifiers></stage18>
</opencv_storage>
