<?xml version="1.0"?>
<opencv_storage>
<stage1>
  <maxWeakCount>5</maxWeakCount>
  <stageThreshold>-7.7637606859207153e-01</stageThreshold>
  <weakClassifiers>
    <_>
      <internalNodes>
        0 -1 159 -547503998 -149729111 5312720 -6876927 -2121756465
        -1962377075 -2142391857 1367579531</internalNodes>
      <leafValues>
        -7.0019721984863281e-01 6.5656566619873047e-01</leafValues></_>
    <_>
      <internalNodes>
        0 -1 61214 -262297 -419430409 -16785410 -286277633 -269103244
        -805310473 -16846920 -989858305</internalNodes>
      <leafValues>
        -5.4475498199462891e-01 6.6096043586730957e-01</leafValues></_>
    <_>
      <internalNodes>
        0 -1 19905 -2121794881 -1061104695 -1056767990 539234433
        403428521 -1845466477 -527961685 -805518907</internalNodes>
      <leafValues>
        -6.3949418067932129e-01 5.3985983133316040e-01</leafValues></_>
    <_>
      <internalNodes>
        0 -1 42682 -3146961 -958936762 -1878284077 -430254881
        -1198800317 -524189501 -770991295 -16842763</internalNodes>
      <leafValues>
        -6.0089945793151855e-01 5.2731609344482422e-01</leafValues></_>
    <_>
      <internalNodes>
        0 -1 64557 -290290016 804855807 -32897 801095679 804766916
        2147483647 -1367409156 -1934667273</internalNodes>
      <leafValues>
        -5.5241012573242188e-01 5.8075428009033203e-01</leafValues></_></weakClassifiers></stage1>
</opencv_storage>
