<?xml version="1.0"?>
<opencv_storage>
<stage9>
  <maxWeakCount>7</maxWeakCount>
  <stageThreshold>-6.2976348400115967e-01</stageThreshold>
  <weakClassifiers>
    <_>
      <internalNodes>
        0 -1 24766 -286609759 2130702319 2147286003 -33964185 -261 -9
        -720917 -1454002425</internalNodes>
      <leafValues>
        -4.1793569922447205e-01 5.6978654861450195e-01</leafValues></_>
    <_>
      <internalNodes>
        0 -1 61931 56864788 -1744044030 3 -1056894447 -2142297672
        -1996349311 -535907451 1308619231</internalNodes>
      <leafValues>
        -4.9207240343093872e-01 4.4342726469039917e-01</leafValues></_>
    <_>
      <internalNodes>
        0 -1 34020 -744771301 -435088037 -1056718625 -900546413
        1376391231 -1172142054 195693045 2134663920</internalNodes>
      <leafValues>
        -6.5266764163970947e-01 3.5804283618927002e-01</leafValues></_>
    <_>
      <internalNodes>
        0 -1 40052 -929315481 -225210346 1342378305 -761307023
        -1043099133 -503267325 847479835 -290725151</internalNodes>
      <leafValues>
        -4.2351546883583069e-01 5.7457482814788818e-01</leafValues></_>
    <_>
      <internalNodes>
        0 -1 27573 -1462044265 1782874393 -1005997989 1925468165
        303129284 -1207851007 294290139 -931626519</internalNodes>
      <leafValues>
        -6.0903203487396240e-01 3.5719642043113708e-01</leafValues></_>
    <_>
      <internalNodes>
        0 -1 4029 1090609283 -753842926 16908325 1394147367 402751627
        537067520 1342641147 822057675</internalNodes>
      <leafValues>
        -4.0317067503929138e-01 5.7893228530883789e-01</leafValues></_>
    <_>
      <internalNodes>
        0 -1 39121 -799835939 -564559855 268468443 -455663211 135300009
        -2088730612 681007215 -285431344</internalNodes>
      <leafValues>
        -5.1520061492919922e-01 5.2148950099945068e-01</leafValues></_></weakClassifiers></stage9>
</opencv_storage>
