<?xml version="1.0"?>
<opencv_storage>
<stage13>
  <maxWeakCount>7</maxWeakCount>
  <stageThreshold>-9.4289553165435791e-01</stageThreshold>
  <weakClassifiers>
    <_>
      <internalNodes>
        0 -1 39586 -154107 -5259265 -17956865 -1079132353 -657409
        -35815425 -50462801 -58905557</internalNodes>
      <leafValues>
        -3.4928944706916809e-01 6.2746942043304443e-01</leafValues></_>
    <_>
      <internalNodes>
        0 -1 62760 -168044673 -505818607 -1870593601 -321270951
        -651983836 -1333558911 1504420469 1146157312</internalNodes>
      <leafValues>
        -7.2101175785064697e-01 2.9908448457717896e-01</leafValues></_>
    <_>
      <internalNodes>
        0 -1 64324 1902051806 -2108587557 -2130636591 -1580892071
        -1870577653 -972978877 -922304015 -842010115</internalNodes>
      <leafValues>
        -4.7148641943931580e-01 4.3743818998336792e-01</leafValues></_>
    <_>
      <internalNodes>
        0 -1 44452 1170411643 1510691083 1342242817 -501587869
        -521494459 -2146918389 -875593721 1591396837</internalNodes>
      <leafValues>
        -5.5984359979629517e-01 3.8626715540885925e-01</leafValues></_>
    <_>
      <internalNodes>
        0 -1 39482 88148093 232014171 151290335 614255631 143208549
        -619118453 454576939 -1426453696</internalNodes>
      <leafValues>
        -6.3906741142272949e-01 2.7261969447135925e-01</leafValues></_>
    <_>
      <internalNodes>
        0 -1 62139 -758068737 -1727671165 -2134802052 -334289893
        -2136432549 1746468937 -670369311 -21542171</internalNodes>
      <leafValues>
        -4.6817454695701599e-01 3.9770185947418213e-01</leafValues></_>
    <_>
      <internalNodes>
        0 -1 23413 -90725421 -536411839 1157665439 -939290619
        -2147253491 -1467285365 -2004696706 1219283897</internalNodes>
      <leafValues>
        -5.2885472774505615e-01 3.8000506162643433e-01</leafValues></_></weakClassifiers></stage13>
</opencv_storage>
