<?xml version="1.0"?>
<opencv_storage>
<cascade>
  <stageType>BOOST</stageType>
  <featureType>LBP</featureType>
  <height>40</height>
  <width>40</width>
  <stageParams>
    <boostType>GAB</boostType>
    <minHitRate>9.9500000476837158e-01</minHitRate>
    <maxFalseAlarm>5.0000000000000000e-01</maxFalseAlarm>
    <weightTrimRate>9.4999999999999996e-01</weightTrimRate>
    <maxDepth>1</maxDepth>
    <maxWeakCount>100</maxWeakCount></stageParams>
  <featureParams>
    <maxCatCount>256</maxCatCount>
    <featSize>1</featSize></featureParams>
  <stageNum>20</stageNum>
  <stages>
    <!-- stage 0 -->
    <_>
      <maxWeakCount>3</maxWeakCount>
      <stageThreshold>-9.3826574087142944e-01</stageThreshold>
      <weakClassifiers>
        <_>
          <internalNodes>
            0 -1 67 -37748737 -536936449 -1 -65537 -1 -65537 -3
            -50790660</internalNodes>
          <leafValues>
            -7.6528120040893555e-01 7.9387187957763672e-01</leafValues></_>
        <_>
          <internalNodes>
            0 -1 79 1624834069 -539934463 1209096703 -70794785
            -930501955 -1148417878 -892811009 -400229643</internalNodes>
          <leafValues>
            -7.5129407644271851e-01 7.0483493804931641e-01</leafValues></_>
        <_>
          <internalNodes>
            0 -1 30 -1904018446 -19610544 1895944669 -36243107
            -913315329 -74988918 -997471745 -101658415</internalNodes>
          <leafValues>
            -8.3599078655242920e-01 5.7830953598022461e-01</leafValues></_></weakClassifiers></_>
    <!-- stage 1 -->
    <_>
      <maxWeakCount>5</maxWeakCount>
      <stageThreshold>-8.1298440694808960e-01</stageThreshold>
      <weakClassifiers>
        <_>
          <internalNodes>
            0 -1 110 -908336732 -754498933 268585171 -984121137
            -2138986336 -938769784 -2012554291 -858795537</internalNodes>
          <leafValues>
            -7.2339332103729248e-01 6.6684347391128540e-01</leafValues></_>
        <_>
          <internalNodes>
            0 -1 11 -69208577 -826223806 -2139041321 -539176104
            -894439169 -821851637 -265304617 -134745133</internalNodes>
          <leafValues>
            -6.0468941926956177e-01 6.4425808191299438e-01</leafValues></_>
        <_>
          <internalNodes>
            0 -1 78 -1 -37765121 -257 -34603593 -1 -262145 -1 -285409292</internalNodes>
          <leafValues>
            -5.7348161935806274e-01 6.1960148811340332e-01</leafValues></_>
        <_>
          <internalNodes>
            0 -1 32 -354974813 -28064301 -64957417 -170589879
            -1400141317 -913604605 -938481445 -990408877</internalNodes>
          <leafValues>
            -5.9256047010421753e-01 5.9954941272735596e-01</leafValues></_>
        <_>
          <internalNodes>
            0 -1 104 -1512150721 608686431 -791608834 -1937788729
            1208262895 144411307 -504371004 -524294913</internalNodes>
          <leafValues>
            -6.6896575689315796e-01 4.8903051018714905e-01</leafValues></_></weakClassifiers></_>
    <!-- stage 2 -->
    <_>
      <maxWeakCount>5</maxWeakCount>
      <stageThreshold>-7.9009318351745605e-01</stageThreshold>
      <weakClassifiers>
        <_>
          <internalNodes>
            0 -1 115 -1 -1 -65793 -84410625 -16789691 -25165833
            -16777739 -184549377</internalNodes>
          <leafValues>
            -6.0541045665740967e-01 6.8090152740478516e-01</leafValues></_>
        <_>
          <internalNodes>
            0 -1 7 -161546889 -66654202 -1072971769 -141500160
            -921968213 -1842626549 -939330813 -144441481</internalNodes>
          <leafValues>
            -5.1409268379211426e-01 6.8483704328536987e-01</leafValues></_>
        <_>
          <internalNodes>
            0 -1 55 -335544321 -1063275537 1880281149 -822157605
            -900994738 -83653725 -5514521 -290131980</internalNodes>
          <leafValues>
            -6.6932934522628784e-01 5.1988846063613892e-01</leafValues></_>
        <_>
          <internalNodes>
            0 -1 70 -373348859 -77872881 -767452161 -17841777 -924471172
            -56899393 -288100649 -596246637</internalNodes>
          <leafValues>
            -6.5067863464355469e-01 4.9748837947845459e-01</leafValues></_>
        <_>
          <internalNodes>
            0 -1 40 -478417377 -301570061 1359041306 -636468974
            -355731029 -880061553 -947139451 -252249227</internalNodes>
          <leafValues>
            -6.5943044424057007e-01 5.0125092267990112e-01</leafValues></_></weakClassifiers></_>
    <!-- stage 3 -->
    <_>
      <maxWeakCount>5</maxWeakCount>
      <stageThreshold>-1.1871682405471802e+00</stageThreshold>
      <weakClassifiers>
        <_>
          <internalNodes>
            0 -1 116 -134218753 -489958501 -447544530 -494939765
            -270538761 1108070807 -603989900 -989856771</internalNodes>
          <leafValues>
            -7.0962649583816528e-01 6.2156558036804199e-01</leafValues></_>
        <_>
          <internalNodes>
            0 -1 6 -303039505 -423167038 -257977391 -25234958 -207099457
            -719339305 2024534259 -168296457</internalNodes>
          <leafValues>
            -7.0602822303771973e-01 5.5053055286407471e-01</leafValues></_>
        <_>
          <internalNodes>
            0 -1 61 -738197537 1750048087 -1790762926 -295767329
            -1030241841 -232838890 -203693147 -20660236</internalNodes>
          <leafValues>
            -7.5821256637573242e-01 4.3915036320686340e-01</leafValues></_>
        <_>
          <internalNodes>
            0 -1 33 -589304668 -772938249 882008693 -1216889893
            -77864513 -1014456695 -36000533 -998768865</internalNodes>
          <leafValues>
            -6.8333005905151367e-01 5.1656746864318848e-01</leafValues></_>
        <_>
          <internalNodes>
            0 -1 83 148318775 -498101841 -1878884321 -489450593
            -200017251 1104880553 -1009124369 -290132187</internalNodes>
          <leafValues>
            -6.5178483724594116e-01 4.7266620397567749e-01</leafValues></_></weakClassifiers></_>
    <!-- stage 4 -->
    <_>
      <maxWeakCount>5</maxWeakCount>
      <stageThreshold>-9.8917192220687866e-01</stageThreshold>
      <weakClassifiers>
        <_>
          <internalNodes>
            0 -1 124 -129 -266241 -16789505 -363069441 -855643052
            -142934153 2113929212 -989855745</internalNodes>
          <leafValues>
            -5.8925145864486694e-01 6.0844081640243530e-01</leafValues></_>
        <_>
          <internalNodes>
            0 -1 48 -1884553293 4248464 -803737107 2108290965 -498097489
            -618723941 1405868463 -570557723</internalNodes>
          <leafValues>
            -5.8007389307022095e-01 5.1163184642791748e-01</leafValues></_>
        <_>
          <internalNodes>
            0 -1 98 -603980801 -564267633 -484982377 -458570917
            -73924609 -28601831 -14684427 2096954292</internalNodes>
          <leafValues>
            -7.2388756275177002e-01 4.0138182044029236e-01</leafValues></_>
        <_>
          <internalNodes>
            0 -1 39 -1484784801 -2042178579 -1861255097 -359210236
            -338695777 -401891301 -477364665 -857932315</internalNodes>
          <leafValues>
            -6.6382956504821777e-01 3.7982395291328430e-01</leafValues></_>
        <_>
          <internalNodes>
            0 -1 53 -497309021 -2800173 1275138393 1045791761
            -1304249665 -104133717 -1367230229 -856560553</internalNodes>
          <leafValues>
            -5.1896679401397705e-01 5.2421700954437256e-01</leafValues></_></weakClassifiers></_>
    <!-- stage 5 -->
    <_>
      <maxWeakCount>5</maxWeakCount>
      <stageThreshold>-8.8737362623214722e-01</stageThreshold>
      <weakClassifiers>
        <_>
          <internalNodes>
            0 -1 96 -6292881 -115629349 -669953921 1385930807 -498083260
            -644675453 -1572746257 -222827637</internalNodes>
          <leafValues>
            -6.1240309476852417e-01 5.3638815879821777e-01</leafValues></_>
        <_>
          <internalNodes>
            0 -1 1 -362348753 -327758 -1 -524443 -16777357 -1
            -1224736905 -145490061</internalNodes>
          <leafValues>
            -4.6945083141326904e-01 5.9923017024993896e-01</leafValues></_>
        <_>
          <internalNodes>
            0 -1 41 -1049737 -366288389 -536735473 -23664318 -83104913
            -938485749 -800853417 -856363019</internalNodes>
          <leafValues>
            -6.0286110639572144e-01 4.2505520582199097e-01</leafValues></_>
        <_>
          <internalNodes>
            0 -1 86 -1426610369 -866135205 -1878928929 -329267713
            -477365385 -566652279 -337642637 -18284575</internalNodes>
          <leafValues>
            -5.6897538900375366e-01 4.1784295439720154e-01</leafValues></_>
        <_>
          <internalNodes>
            0 -1 108 -245398801 -279064062 17518662 1616609415 -74800393
            -208961397 -1023155420 1156569341</internalNodes>
          <leafValues>
            -6.4841783046722412e-01 4.0207767486572266e-01</leafValues></_></weakClassifiers></_>
    <!-- stage 6 -->
    <_>
      <maxWeakCount>7</maxWeakCount>
      <stageThreshold>-1.0448424816131592e+00</stageThreshold>
      <weakClassifiers>
        <_>
          <internalNodes>
            0 -1 3 -997725462 -753577131 -29272201 -45805245 -709580545
            -3503927 -1047994373 -138938109</internalNodes>
          <leafValues>
            -6.2540715932846069e-01 4.9383983016014099e-01</leafValues></_>
        <_>
          <internalNodes>
            0 -1 126 -885791897 1912836099 1073742097 -368602165
            -1463136091 -2142699515 -2004691992 -855639809</internalNodes>
          <leafValues>
            -5.1873868703842163e-01 5.4314821958541870e-01</leafValues></_>
        <_>
          <internalNodes>
            0 -1 35 -203423809 -488189865 1359577563 -163687980
            -375676197 1170901703 94627831 -998969147</internalNodes>
          <leafValues>
            -6.7960768938064575e-01 3.8105040788650513e-01</leafValues></_>
        <_>
          <internalNodes>
            0 -1 52 -102762513 -654190261 -1841097917 -226311966
            -1061041777 -804287809 -208698973 -251863084</internalNodes>
          <leafValues>
            -5.5925530195236206e-01 4.3584862351417542e-01</leafValues></_>
        <_>
          <internalNodes>
            0 -1 71 -956356607 -742834175 3216095 -767180229 -533562881
            -1324830709 -1446203459 -433741771</internalNodes>
          <leafValues>
            -6.7320525646209717e-01 3.6010813713073730e-01</leafValues></_>
        <_>
          <internalNodes>
            0 -1 9 -460435417 -188291840 16891907 -715898447 -930410361
            -1996259317 1887854699 -77341897</internalNodes>
          <leafValues>
            -4.4847431778907776e-01 5.2053606510162354e-01</leafValues></_>
        <_>
          <internalNodes>
            0 -1 51 -1547961581 -476458806 805933139 1918792085
            -2138313489 -367881846 -1987174249 -855844143</internalNodes>
          <leafValues>
            -5.5735784769058228e-01 4.0408396720886230e-01</leafValues></_></weakClassifiers></_>
    <!-- stage 7 -->
    <_>
      <maxWeakCount>7</maxWeakCount>
      <stageThreshold>-9.0119433403015137e-01</stageThreshold>
      <weakClassifiers>
        <_>
          <internalNodes>
            0 -1 105 -554220939 -768540641 131159 1359437919 -894443811
            -934608758 -1303654161 -28114949</internalNodes>
          <leafValues>
            -6.3510394096374512e-01 4.4217687845230103e-01</leafValues></_>
        <_>
          <internalNodes>
            0 -1 13 -786435713 -166067438 562233391 1568043524
            -1811243002 -2115305298 135252031 -9180297</internalNodes>
          <leafValues>
            -4.4323265552520752e-01 5.3307455778121948e-01</leafValues></_>
        <_>
          <internalNodes>
            0 -1 129 -480512513 -348130849 620923335 -297320305
            -754195009 1302512105 -1413705227 -989987587</internalNodes>
          <leafValues>
            -4.9156558513641357e-01 4.5635160803794861e-01</leafValues></_>
        <_>
          <internalNodes>
            0 -1 47 -1347431433 -523337563 -1842899519 1959063749
            1510720511 -360472501 -611583233 -52363819</internalNodes>
          <leafValues>
            -5.9012025594711304e-01 3.5797482728958130e-01</leafValues></_>
        <_>
          <internalNodes>
            0 -1 69 681458559 -1994456897 1392728538 -16162 2074290811
            -611678065 -1182576901 721055339</internalNodes>
          <leafValues>
            -4.9936118721961975e-01 4.2765942215919495e-01</leafValues></_>
        <_>
          <internalNodes>
            0 -1 81 -929609211 -247896000 -666795937 -803679225
            -1467232076 1243679243 -536089859 -27145433</internalNodes>
          <leafValues>
            -5.7939797639846802e-01 3.5548213124275208e-01</leafValues></_>
        <_>
          <internalNodes>
            0 -1 57 1066631151 -12090615 -2147233727 -1088978553
            1366264511 -619931501 1939072671 -9633984</internalNodes>
          <leafValues>
            -4.7240850329399109e-01 4.8474052548408508e-01</leafValues></_></weakClassifiers></_>
    <!-- stage 8 -->
    <_>
      <maxWeakCount>7</maxWeakCount>
      <stageThreshold>-1.0499186515808105e+00</stageThreshold>
      <weakClassifiers>
        <_>
          <internalNodes>
            0 -1 118 -70780337 1973403919 269504911 -1341930741
            -2142644140 -939284472 -938755331 -92803329</internalNodes>
          <leafValues>
            -5.5398589372634888e-01 5.0221240520477295e-01</leafValues></_>
        <_>
          <internalNodes>
            0 -1 12 -217 -151584921 -1 -606538 -262303 -33554625
            -403177609 2067005299</internalNodes>
          <leafValues>
            -4.1994917392730713e-01 5.4058969020843506e-01</leafValues></_>
        <_>
          <internalNodes>
            0 -1 77 -413682721 -288927077 1393025393 -972104869
            -248020037 -1144813143 -39329803 1142222640</internalNodes>
          <leafValues>
            -8.0532687902450562e-01 2.6971590518951416e-01</leafValues></_>
        <_>
          <internalNodes>
            0 -1 132 -303603713 788463615 -20609 -286396549 -536870913
            -268436097 -536871451 -38404827</internalNodes>
          <leafValues>
            -4.3262171745300293e-01 4.9086377024650574e-01</leafValues></_>
        <_>
          <internalNodes>
            0 -1 64 1654368289 1532084309 -729743119 -1316548597
            -184508206 -1154973656 -1433879829 -402544465</internalNodes>
          <leafValues>
            -5.0413107872009277e-01 4.2128440737724304e-01</leafValues></_>
        <_>
          <internalNodes>
            0 -1 68 1393031679 1886705858 -2141044397 1860747406
            -1802898973 -71057277 1801038154 -25886788</internalNodes>
          <leafValues>
            -5.9178125858306885e-01 3.3975920081138611e-01</leafValues></_>
        <_>
          <internalNodes>
            0 -1 101 -1362142861 -410840763 -1727270261 -2107162389
            1901847186 -1174372349 -351623509 1857870829</internalNodes>
          <leafValues>
            -5.5768746137619019e-01 3.6989614367485046e-01</leafValues></_></weakClassifiers></_>
    <!-- stage 9 -->
    <_>
      <maxWeakCount>7</maxWeakCount>
      <stageThreshold>-9.9502211809158325e-01</stageThreshold>
      <weakClassifiers>
        <_>
          <internalNodes>
            0 -1 31 -290783237 -16880211 -32787 -67108923 -4097
            -285224963 -33558529 -704645133</internalNodes>
          <leafValues>
            -4.8760330677032471e-01 5.4094290733337402e-01</leafValues></_>
        <_>
          <internalNodes>
            0 -1 113 -2086667371 -1281391853 285245473 -536674301
            -905723660 -2088566776 1355995340 -860886577</internalNodes>
          <leafValues>
            -5.7870352268218994e-01 4.1829124093055725e-01</leafValues></_>
        <_>
          <internalNodes>
            0 -1 94 -1023955089 -993672265 -1019095585 -927016673
            -71595913 -661954419 2027601781 2130704245</internalNodes>
          <leafValues>
            -5.4681891202926636e-01 3.6075118184089661e-01</leafValues></_>
        <_>
          <internalNodes>
            0 -1 49 987169615 85463061 1100296363 236354439 -1870583681
            -610597631 -141835265 -1079370980</internalNodes>
          <leafValues>
            -4.7372302412986755e-01 4.3454432487487793e-01</leafValues></_>
        <_>
          <internalNodes>
            0 -1 42 -348398753 -526991061 -1073667839 -730021629
            -1040178685 178487306 872579587 -168493211</internalNodes>
          <leafValues>
            -6.5843474864959717e-01 3.0488941073417664e-01</leafValues></_>
        <_>
          <internalNodes>
            0 -1 50 -2037663822 -305082175 -788413163 1385269504
            -117393157 950012073 -343246449 -319209019</internalNodes>
          <leafValues>
            -5.9211003780364990e-01 3.5175940394401550e-01</leafValues></_>
        <_>
          <internalNodes>
            0 -1 103 -630737333 2147446614 2080309102 1786769399
            -25239636 -36407681 1065279423 -492458273</internalNodes>
          <leafValues>
            -4.1733539104461670e-01 4.8769196867942810e-01</leafValues></_></weakClassifiers></_>
    <!-- stage 10 -->
    <_>
      <maxWeakCount>7</maxWeakCount>
      <stageThreshold>-9.0076738595962524e-01</stageThreshold>
      <weakClassifiers>
        <_>
          <internalNodes>
            0 -1 29 -449315845 -297627622 -1794928485 -249868159
            -1224410997 -132513142 -1416892285 -643833149</internalNodes>
          <leafValues>
            -5.3993612527847290e-01 4.1568204760551453e-01</leafValues></_>
        <_>
          <internalNodes>
            0 -1 127 -743193641 45342727 1442934806 1193181555
            -1333672721 -527892472 -531893771 -839124481</internalNodes>
          <leafValues>
            -4.0483793616294861e-01 5.2467727661132812e-01</leafValues></_>
        <_>
          <internalNodes>
            0 -1 119 -292555905 -879656509 17007330 -488648383
            -1077699771 -249038837 -345314975 2096955381</internalNodes>
          <leafValues>
            -6.2759721279144287e-01 3.0887418985366821e-01</leafValues></_>
        <_>
          <internalNodes>
            0 -1 16 -784075974 -661402665 49288 2027168018 143114755
            -33382390 -1065113045 2004016951</internalNodes>
          <leafValues>
            -4.7961843013763428e-01 4.2413800954818726e-01</leafValues></_>
        <_>
          <internalNodes>
            0 -1 88 -624181243 1362203731 -1879043885 -586573547 3785209
            -671055336 -1711263317 -133572529</internalNodes>
          <leafValues>
            -4.2934092879295349e-01 4.2355117201805115e-01</leafValues></_>
        <_>
          <internalNodes>
            0 -1 20 -78679179 55693703 -2059155367 -1331074201
            2040752981 1790285966 -200036557 -1149260945</internalNodes>
          <leafValues>
            -5.1395636796951294e-01 4.2793005704879761e-01</leafValues></_>
        <_>
          <internalNodes>
            0 -1 74 871585663 801883461 -1820081965 445681957
            -1736423107 -91521018 -8306241 -1360249064</internalNodes>
          <leafValues>
            -5.9860038757324219e-01 3.6489558219909668e-01</leafValues></_></weakClassifiers></_>
    <!-- stage 11 -->
    <_>
      <maxWeakCount>8</maxWeakCount>
      <stageThreshold>-1.0536597967147827e+00</stageThreshold>
      <weakClassifiers>
        <_>
          <internalNodes>
            0 -1 82 -468767659 -653033451 -805220107 -678362815
            -779040114 -894918648 -1333470469 -19342629</internalNodes>
          <leafValues>
            -5.1305222511291504e-01 4.4736841320991516e-01</leafValues></_>
        <_>
          <internalNodes>
            0 -1 75 789260599 -958842855 -788398603 -291679893
            -1397516165 -78405489 -634283147 1820170769</internalNodes>
          <leafValues>
            -7.0688802003860474e-01 2.6569861173629761e-01</leafValues></_>
        <_>
          <internalNodes>
            0 -1 131 149651575 1368216230 1342343567 2094207371
            -667160560 -935100278 -930899767 -427826469</internalNodes>
          <leafValues>
            -4.5706111192703247e-01 4.2487892508506775e-01</leafValues></_>
        <_>
          <internalNodes>
            0 -1 62 -339226131 -82611713 -2095545143 -1737580199
            1796464795 -232937445 -274994691 1481964516</internalNodes>
          <leafValues>
            -6.0414719581604004e-01 3.3432456851005554e-01</leafValues></_>
        <_>
          <internalNodes>
            0 -1 27 -379946209 1878512087 -787916905 -292550617
            851069541 1881876659 2106594613 -37753921</internalNodes>
          <leafValues>
            -5.1812434196472168e-01 3.5852134227752686e-01</leafValues></_>
        <_>
          <internalNodes>
            0 -1 54 -1358505987 1323188356 -1810362109 2048344216
            1745869743 -1574788984 -360494181 -571685395</internalNodes>
          <leafValues>
            -5.5017948150634766e-01 3.5079488158226013e-01</leafValues></_>
        <_>
          <internalNodes>
            0 -1 37 -1869117790 1364197377 -2080301040 -782875763
            -116165893 999426690 -1870495425 1078327879</internalNodes>
          <leafValues>
            -6.8292707204818726e-01 2.2271646559238434e-01</leafValues></_>
        <_>
          <internalNodes>
            0 -1 73 1344258495 1896964891 -2130638369 -1500226165
            -1860060453 -787971893 -750669849 1557723472</internalNodes>
          <leafValues>
            -7.0162475109100342e-01 2.5795859098434448e-01</leafValues></_></weakClassifiers></_>
    <!-- stage 12 -->
    <_>
      <maxWeakCount>7</maxWeakCount>
      <stageThreshold>-1.4395866394042969e+00</stageThreshold>
      <weakClassifiers>
        <_>
          <internalNodes>
            0 -1 123 -2131508735 286331395 1073811459 1929445379 231564
            -1299545720 835240587 -456934453</internalNodes>
          <leafValues>
            -5.5115884542465210e-01 3.7290716171264648e-01</leafValues></_>
        <_>
          <internalNodes>
            0 -1 44 -627584862 1901154619 -1876635401 -1139601263
            -1844921605 -1312225279 -2013167361 69437643</internalNodes>
          <leafValues>
            -5.6976926326751709e-01 3.3291622996330261e-01</leafValues></_>
        <_>
          <internalNodes>
            0 -1 36 -202899969 -355274301 -1056725731 -220178748
            -205274353 -880050045 -1672901065 -186333099</internalNodes>
          <leafValues>
            -5.8194577693939209e-01 3.1126841902732849e-01</leafValues></_>
        <_>
          <internalNodes>
            0 -1 24 1090764971 831750417 16863492 -1035958912
            -1065312101 1670021248 1208078520 821024226</internalNodes>
          <leafValues>
            -6.1019015312194824e-01 3.0244293808937073e-01</leafValues></_>
        <_>
          <internalNodes>
            0 -1 85 -2117721257 -449107683 -1862217251 1850579359
            -1961255323 -79068157 -1962215211 2122118004</internalNodes>
          <leafValues>
            -6.2782996892929077e-01 3.0464556813240051e-01</leafValues></_>
        <_>
          <internalNodes>
            0 -1 10 558883301 1319518482 -1862205241 2136363026
            2047033483 515932160 806060739 -314343103</internalNodes>
          <leafValues>
            -6.0932421684265137e-01 2.6764544844627380e-01</leafValues></_>
        <_>
          <internalNodes>
            0 -1 122 -512009729 -1344442011 1394185651 -1403055157
            -1148468501 -282944117 -475310271 1282788788</internalNodes>
          <leafValues>
            -6.5008074045181274e-01 2.5409004092216492e-01</leafValues></_></weakClassifiers></_>
    <!-- stage 13 -->
    <_>
      <maxWeakCount>8</maxWeakCount>
      <stageThreshold>-9.6347975730895996e-01</stageThreshold>
      <weakClassifiers>
        <_>
          <internalNodes>
            0 -1 5 -804912874 1385299986 33685505 -732954624 1346930699
            -1610477560 -1878818813 1969485863</internalNodes>
          <leafValues>
            -6.3331180810928345e-01 3.3820173144340515e-01</leafValues></_>
        <_>
          <internalNodes>
            0 -1 117 -1363685377 1069019007 -1360068873 1047773167
            -536875172 -834142210 -2097412 -285223937</internalNodes>
          <leafValues>
            -4.2013600468635559e-01 4.7575101256370544e-01</leafValues></_>
        <_>
          <internalNodes>
            0 -1 76 1172255615 -293895991 17111563 -1238179405
            1075552371 -888986733 -1962298509 1610014565</internalNodes>
          <leafValues>
            -5.4408532381057739e-01 3.2903304696083069e-01</leafValues></_>
        <_>
          <internalNodes>
            0 -1 18 1247113695 228298817 1091688473 -1366678651
            1779001993 2005377154 -1735292101 1665163312</internalNodes>
          <leafValues>
            -5.8456796407699585e-01 3.2771697640419006e-01</leafValues></_>
        <_>
          <internalNodes>
            0 -1 38 -854591583 -356327045 18419991 2049975728 469659
            -284294770 1351258293 -723852047</internalNodes>
          <leafValues>
            -6.6120076179504395e-01 2.4977645277976990e-01</leafValues></_>
        <_>
          <internalNodes>
            0 -1 111 -2138316512 -754806781 268501058 1124147201
            -2130083191 -1828716032 1107528351 1156563595</internalNodes>
          <leafValues>
            -5.1996350288391113e-01 3.7597537040710449e-01</leafValues></_>
        <_>
          <internalNodes>
            0 -1 22 -305937758 -731946702 1090584849 -581004528
            -1576500598 -1425405950 -1995765749 1360128260</internalNodes>
          <leafValues>
            -6.3827455043792725e-01 2.5869256258010864e-01</leafValues></_>
        <_>
          <internalNodes>
            0 -1 91 -78432049 286491059 19241239 382767638 -596944401
            -1144682488 -607396867 -84657172</internalNodes>
          <leafValues>
            -5.3865307569503784e-01 3.5676980018615723e-01</leafValues></_></weakClassifiers></_>
    <!-- stage 14 -->
    <_>
      <maxWeakCount>8</maxWeakCount>
      <stageThreshold>-1.4749430418014526e+00</stageThreshold>
      <weakClassifiers>
        <_>
          <internalNodes>
            0 -1 99 -402894595 -73138153 -1601989651 -251555827
            -58590839 -796680189 -2000643377 -1140925765</internalNodes>
          <leafValues>
            -4.9772611260414124e-01 4.2305508255958557e-01</leafValues></_>
        <_>
          <internalNodes>
            0 -1 14 -1000882160 -465140797 18415695 2055864380 33720463
            705372803 42057763 -238815293</internalNodes>
          <leafValues>
            -4.5785006880760193e-01 4.1162356734275818e-01</leafValues></_>
        <_>
          <internalNodes>
            0 -1 102 -868689388 -620035967 32835 1157824515 -1429225239
            202473472 -1602057493 1617284047</internalNodes>
          <leafValues>
            -5.7656216621398926e-01 3.3799874782562256e-01</leafValues></_>
        <_>
          <internalNodes>
            0 -1 121 -1010051233 -868052717 323199279 -694218622
            -968455323 -2146762453 933937313 2051072465</internalNodes>
          <leafValues>
            -5.8218902349472046e-01 3.7379327416419983e-01</leafValues></_>
        <_>
          <internalNodes>
            0 -1 93 -1354246145 -1854975181 1965900119 974950959
            -1953900342 -634832875 -79998791 -37978132</internalNodes>
          <leafValues>
            -5.0097978115081787e-01 4.1042515635490417e-01</leafValues></_>
        <_>
          <internalNodes>
            0 -1 26 431052197 1062802683 -779904587 -1299047529
            -1279449051 -24534581 -880105419 -1082723721</internalNodes>
          <leafValues>
            -5.4736483097076416e-01 3.4720811247825623e-01</leafValues></_>
        <_>
          <internalNodes>
            0 -1 72 -485259969 -1005367287 16958427 1712916955
            -1433304521 -545161079 1494354736 733652948</internalNodes>
          <leafValues>
            -6.7814201116561890e-01 2.9055345058441162e-01</leafValues></_>
        <_>
          <internalNodes>
            0 -1 90 1091686974 39174480 81985 -1882079036 -1962704657
            415891456 -1979602935 2085481007</internalNodes>
          <leafValues>
            -4.7336772084236145e-01 3.9102196693420410e-01</leafValues></_></weakClassifiers></_>
    <!-- stage 15 -->
    <_>
      <maxWeakCount>8</maxWeakCount>
      <stageThreshold>-1.0322493314743042e+00</stageThreshold>
      <weakClassifiers>
        <_>
          <internalNodes>
            0 -1 65 1479137318 -787361776 33599711 -1794784749
            -1475825421 -2013253632 21010619 -261369698</internalNodes>
          <leafValues>
            -5.6246465444564819e-01 3.8305428624153137e-01</leafValues></_>
        <_>
          <internalNodes>
            0 -1 80 -917510869 1780158839 1091109331 -724156133
            -2122078133 1266745483 65129779 2136996645</internalNodes>
          <leafValues>
            -4.5056632161140442e-01 3.9612886309623718e-01</leafValues></_>
        <_>
          <internalNodes>
            0 -1 63 221206463 429647007 66513 -1689800446 -1294893185
            1535897263 -1565564817 -1363528934</internalNodes>
          <leafValues>
            -4.3262395262718201e-01 4.1032296419143677e-01</leafValues></_>
        <_>
          <internalNodes>
            0 -1 128 -1134859659 -268206079 -2147254271 -519573245
            27708088 -1476294136 1617070749 -1089316005</internalNodes>
          <leafValues>
            -4.7906407713890076e-01 3.6346453428268433e-01</leafValues></_>
        <_>
          <internalNodes>
            0 -1 23 -783560361 1758662913 1343328516 -657309354
            -116858333 -1853816830 1216589411 1897137056</internalNodes>
          <leafValues>
            -7.0666885375976562e-01 2.6413902640342712e-01</leafValues></_>
        <_>
          <internalNodes>
            0 -1 107 -1008742561 -1056202479 65729 -434468589
            -1609843439 -746454848 304806625 -29164047</internalNodes>
          <leafValues>
            -5.8713203668594360e-01 2.4633377790451050e-01</leafValues></_>
        <_>
          <internalNodes>
            0 -1 21 1330937395 197755147 -107347669 -471735463
            1754022150 831129787 415936821 -201364613</internalNodes>
          <leafValues>
            -5.1514780521392822e-01 3.4357374906539917e-01</leafValues></_>
        <_>
          <internalNodes>
            0 -1 87 152827135 299700227 34705557 -299986663 -1810116209
            -628195319 -1277387043 206633776</internalNodes>
          <leafValues>
            -6.7999279499053955e-01 2.8774806857109070e-01</leafValues></_></weakClassifiers></_>
    <!-- stage 16 -->
    <_>
      <maxWeakCount>9</maxWeakCount>
      <stageThreshold>-1.4066846370697021e+00</stageThreshold>
      <weakClassifiers>
        <_>
          <internalNodes>
            0 -1 66 -1517233741 -934180207 -753827425 1464178889
            -615871825 -592074611 -2088199173 -827750223</internalNodes>
          <leafValues>
            -5.0780439376831055e-01 3.8800904154777527e-01</leafValues></_>
        <_>
          <internalNodes>
            0 -1 125 1674818143 1360204310 67108883 1082261571 403165697
            939655170 679721352 -262198549</internalNodes>
          <leafValues>
            -5.4192060232162476e-01 3.2684919238090515e-01</leafValues></_>
        <_>
          <internalNodes>
            0 -1 56 1783867441 2064777385 1208025589 -764854052
            -1979610949 -1149108080 -1690267345 -1394498953</internalNodes>
          <leafValues>
            -4.8732540011405945e-01 3.2721421122550964e-01</leafValues></_>
        <_>
          <internalNodes>
            0 -1 89 -997604593 -467857103 76567481 -972865319
            -1744131989 -133723520 146454561 1687212288</internalNodes>
          <leafValues>
            -7.2131735086441040e-01 2.6689398288726807e-01</leafValues></_>
        <_>
          <internalNodes>
            0 -1 109 -766000765 1045677889 81984 -1476050857 -1593800701
            -1258061440 1149272069 551005037</internalNodes>
          <leafValues>
            -5.1276773214340210e-01 3.2014319300651550e-01</leafValues></_>
        <_>
          <internalNodes>
            0 -1 97 -741347045 -1241268029 1107312649 -1809333945
            -2121564017 -1710733029 28019209 1545666164</internalNodes>
          <leafValues>
            -7.5348657369613647e-01 2.1385025978088379e-01</leafValues></_>
        <_>
          <internalNodes>
            0 -1 46 -1654822953 -1282211809 -939453317 -1094559265
            740303645 -275709822 -741604834 -1432084506</internalNodes>
          <leafValues>
            -4.8757886886596680e-01 3.1539317965507507e-01</leafValues></_>
        <_>
          <internalNodes>
            0 -1 19 1078022603 1002635523 -1862188783 83902482 293601343
            1402503187 25725055 2070042978</internalNodes>
          <leafValues>
            -5.1449090242385864e-01 3.1973505020141602e-01</leafValues></_>
        <_>
          <internalNodes>
            0 -1 45 -514461285 1142554714 20615 1578602517 -536313335
            -1465843704 1124925731 -857935415</internalNodes>
          <leafValues>
            -5.1885038614273071e-01 3.5287347435951233e-01</leafValues></_></weakClassifiers></_>
    <!-- stage 17 -->
    <_>
      <maxWeakCount>9</maxWeakCount>
      <stageThreshold>-9.6829092502593994e-01</stageThreshold>
      <weakClassifiers>
        <_>
          <internalNodes>
            0 -1 95 -419502737 2042560174 -293962133 -1048965 -25370744
            653319549 2088521435 -768369425</internalNodes>
          <leafValues>
            -4.2004969716072083e-01 5.6739813089370728e-01</leafValues></_>
        <_>
          <internalNodes>
            0 -1 2 1342210072 -1069383552 65537 -2129657847 67786
            -2147417984 -2113929214 1444119139</internalNodes>
          <leafValues>
            -5.3402906656265259e-01 3.7354406714439392e-01</leafValues></_>
        <_>
          <internalNodes>
            0 -1 112 1425538111 -293601419 -16846993 2146391798
            -864097172 1835425780 2113862911 -219021313</internalNodes>
          <leafValues>
            -3.9583930373191833e-01 4.6926438808441162e-01</leafValues></_>
        <_>
          <internalNodes>
            0 -1 34 1629745296 1108361232 16777241 352637972 1879228586
            1611145216 -536313205 -2085887471</internalNodes>
          <leafValues>
            -4.9968883395195007e-01 3.6757984757423401e-01</leafValues></_>
        <_>
          <internalNodes>
            0 -1 92 1674252883 331415587 -2147418096 -1834860544
            -520060757 -510943152 1677846801 2127311585</internalNodes>
          <leafValues>
            -5.6624519824981689e-01 3.5012558102607727e-01</leafValues></_>
        <_>
          <internalNodes>
            0 -1 84 1753139 -795803647 -2147413987 1879248901
            -2004833607 -2147483640 545884585 -91979259</internalNodes>
          <leafValues>
            -4.3612816929817200e-01 4.5907896757125854e-01</leafValues></_>
        <_>
          <internalNodes>
            0 -1 60 1359593627 -1861681086 65673 1073748227 536938499
            -1945567104 571082752 1477190072</internalNodes>
          <leafValues>
            -6.9298487901687622e-01 2.9916569590568542e-01</leafValues></_>
        <_>
          <internalNodes>
            0 -1 17 -1790910305 -784285693 28 882508035 -2138406912
            -1744306166 -2147450870 -242776009</internalNodes>
          <leafValues>
            -4.6565887331962585e-01 4.3394932150840759e-01</leafValues></_>
        <_>
          <internalNodes>
            0 -1 134 -2142099620 16810121 -1040121523 605039065
            -1601699827 2056257668 -2138537821 -2006529463</internalNodes>
          <leafValues>
            -5.7198369503021240e-01 3.3994460105895996e-01</leafValues></_></weakClassifiers></_>
    <!-- stage 18 -->
    <_>
      <maxWeakCount>8</maxWeakCount>
      <stageThreshold>-1.2039330005645752e+00</stageThreshold>
      <weakClassifiers>
        <_>
          <internalNodes>
            0 -1 130 268601888 16809984 128 65537 136 -2013265792
            50331778 -293350725</internalNodes>
          <leafValues>
            -5.7602179050445557e-01 4.1347709298133850e-01</leafValues></_>
        <_>
          <internalNodes>
            0 -1 28 -1073692479 1368391681 16781588 -1795096576
            268435635 696254464 -1610612597 -1576861694</internalNodes>
          <leafValues>
            -5.3660547733306885e-01 4.5135471224784851e-01</leafValues></_>
        <_>
          <internalNodes>
            0 -1 114 -1878482722 1358954497 1073741954 268435713
            -2138537944 -2139094974 65720 -1843167229</internalNodes>
          <leafValues>
            -5.0377243757247925e-01 4.6596223115921021e-01</leafValues></_>
        <_>
          <internalNodes>
            0 -1 15 -1137758464 1349908325 -268435548 -1301741592
            1065326434 -1393098889 -41968343 -749666317</internalNodes>
          <leafValues>
            -4.7753691673278809e-01 5.4801577329635620e-01</leafValues></_>
        <_>
          <internalNodes>
            0 -1 0 -802093996 158926081 -1342394759 222080296
            -2064505690 -1801437328 779108013 1001080367</internalNodes>
          <leafValues>
            -4.4058343768119812e-01 5.8741748332977295e-01</leafValues></_>
        <_>
          <internalNodes>
            0 -1 106 -1064695729 -1073741824 131201 33882112 33201
            16809984 -2013101943 -570261423</internalNodes>
          <leafValues>
            -5.7868039608001709e-01 4.4955483078956604e-01</leafValues></_>
        <_>
          <internalNodes>
            0 -1 25 -519995371 1342521344 85 -1841299456 134234112
            -1610579948 -2011135896 -1730129397</internalNodes>
          <leafValues>
            -4.7679436206817627e-01 5.5366551876068115e-01</leafValues></_>
        <_>
          <internalNodes>
            0 -1 59 1358976067 -503316464 -2147483631 -2105081792
            -2013232981 -528482288 134291584 2065465580</internalNodes>
          <leafValues>
            -6.3722640275955200e-01 4.0545934438705444e-01</leafValues></_></weakClassifiers></_>
    <!-- stage 19 -->
    <_>
      <maxWeakCount>7</maxWeakCount>
      <stageThreshold>-1.6213297843933105e+00</stageThreshold>
      <weakClassifiers>
        <_>
          <internalNodes>
            0 -1 100 -738212230 -1653704722 -16767 1044347995
            -1101211249 -679706753 -327924001 -1842852857</internalNodes>
          <leafValues>
            -5.1559162139892578e-01 6.7976278066635132e-01</leafValues></_>
        <_>
          <internalNodes>
            0 -1 4 1343226016 293601296 65536 285212688 822083800 524288
            137 1359085576</internalNodes>
          <leafValues>
            -7.0158201456069946e-01 4.5574274659156799e-01</leafValues></_>
        <_>
          <internalNodes>
            0 -1 43 -1040170871 -2080309055 257 1074069504 26 2
            -2146926583 -1182792821</internalNodes>
          <leafValues>
            -5.0727123022079468e-01 6.4860028028488159e-01</leafValues></_>
        <_>
          <internalNodes>
            0 -1 133 694521028 -278462722 -65810 -287297562 1325268417
            2130706431 2130607984 1292094919</internalNodes>
          <leafValues>
            -4.7766885161399841e-01 6.9925546646118164e-01</leafValues></_>
        <_>
          <internalNodes>
            0 -1 58 217297 286261249 128 403046401 16777224 134742032
            -1610577751 -1635725312</internalNodes>
          <leafValues>
            -5.3809309005737305e-01 6.4144355058670044e-01</leafValues></_>
        <_>
          <internalNodes>
            0 -1 120 -1862123511 34603009 -1744830445 -2129592279
            -2147482486 805437440 -2147483648 814030928</internalNodes>
          <leafValues>
            -6.0193651914596558e-01 5.5636954307556152e-01</leafValues></_>
        <_>
          <internalNodes>
            0 -1 8 285282312 1074855936 1 1476460572 32768 537935872
            -2147483637 1090584577</internalNodes>
          <leafValues>
            -6.3564747571945190e-01 5.5190616846084595e-01</leafValues></_></weakClassifiers></_></stages>
  <features>
    <_>
      <rect>
        0 0 2 2</rect></_>
    <_>
      <rect>
        0 0 3 11</rect></_>
    <_>
      <rect>
        0 0 3 12</rect></_>
    <_>
      <rect>
        0 0 11 3</rect></_>
    <_>
      <rect>
        0 0 12 3</rect></_>
    <_>
      <rect>
        0 1 4 13</rect></_>
    <_>
      <rect>
        0 4 6 3</rect></_>
    <_>
      <rect>
        0 5 3 10</rect></_>
    <_>
      <rect>
        0 5 9 6</rect></_>
    <_>
      <rect>
        0 6 2 7</rect></_>
    <_>
      <rect>
        0 6 3 4</rect></_>
    <_>
      <rect>
        0 6 5 3</rect></_>
    <_>
      <rect>
        0 7 3 11</rect></_>
    <_>
      <rect>
        0 9 3 8</rect></_>
    <_>
      <rect>
        0 11 2 4</rect></_>
    <_>
      <rect>
        0 17 2 3</rect></_>
    <_>
      <rect>
        0 19 3 4</rect></_>
    <_>
      <rect>
        0 21 4 3</rect></_>
    <_>
      <rect>
        0 29 9 3</rect></_>
    <_>
      <rect>
        0 31 8 3</rect></_>
    <_>
      <rect>
        0 36 2 1</rect></_>
    <_>
      <rect>
        0 37 2 1</rect></_>
    <_>
      <rect>
        1 3 8 5</rect></_>
    <_>
      <rect>
        1 17 2 2</rect></_>
    <_>
      <rect>
        1 25 13 5</rect></_>
    <_>
      <rect>
        1 26 1 1</rect></_>
    <_>
      <rect>
        1 29 2 1</rect></_>
    <_>
      <rect>
        1 36 2 1</rect></_>
    <_>
      <rect>
        2 0 9 2</rect></_>
    <_>
      <rect>
        2 3 4 3</rect></_>
    <_>
      <rect>
        3 0 4 7</rect></_>
    <_>
      <rect>
        3 0 6 4</rect></_>
    <_>
      <rect>
        3 0 9 4</rect></_>
    <_>
      <rect>
        3 0 12 4</rect></_>
    <_>
      <rect>
        3 1 4 3</rect></_>
    <_>
      <rect>
        3 11 2 2</rect></_>
    <_>
      <rect>
        3 14 1 2</rect></_>
    <_>
      <rect>
        4 0 10 3</rect></_>
    <_>
      <rect>
        4 9 2 2</rect></_>
    <_>
      <rect>
        4 12 1 2</rect></_>
    <_>
      <rect>
        4 12 3 3</rect></_>
    <_>
      <rect>
        4 15 1 2</rect></_>
    <_>
      <rect>
        4 15 1 3</rect></_>
    <_>
      <rect>
        4 36 3 1</rect></_>
    <_>
      <rect>
        6 0 11 3</rect></_>
    <_>
      <rect>
        6 10 2 2</rect></_>
    <_>
      <rect>
        6 27 2 2</rect></_>
    <_>
      <rect>
        7 7 1 2</rect></_>
    <_>
      <rect>
        8 3 2 2</rect></_>
    <_>
      <rect>
        8 33 5 2</rect></_>
    <_>
      <rect>
        9 1 4 2</rect></_>
    <_>
      <rect>
        9 5 2 2</rect></_>
    <_>
      <rect>
        9 22 1 2</rect></_>
    <_>
      <rect>
        10 1 6 2</rect></_>
    <_>
      <rect>
        10 4 1 2</rect></_>
    <_>
      <rect>
        10 19 1 2</rect></_>
    <_>
      <rect>
        11 1 6 3</rect></_>
    <_>
      <rect>
        11 27 1 2</rect></_>
    <_>
      <rect>
        11 31 3 1</rect></_>
    <_>
      <rect>
        12 12 1 1</rect></_>
    <_>
      <rect>
        12 17 4 2</rect></_>
    <_>
      <rect>
        12 21 3 3</rect></_>
    <_>
      <rect>
        12 25 1 1</rect></_>
    <_>
      <rect>
        12 31 3 3</rect></_>
    <_>
      <rect>
        13 0 7 3</rect></_>
    <_>
      <rect>
        13 0 8 3</rect></_>
    <_>
      <rect>
        13 2 2 1</rect></_>
    <_>
      <rect>
        13 14 3 6</rect></_>
    <_>
      <rect>
        13 25 1 2</rect></_>
    <_>
      <rect>
        13 34 2 2</rect></_>
    <_>
      <rect>
        14 1 6 2</rect></_>
    <_>
      <rect>
        14 2 6 4</rect></_>
    <_>
      <rect>
        14 10 3 1</rect></_>
    <_>
      <rect>
        14 21 3 2</rect></_>
    <_>
      <rect>
        14 29 2 2</rect></_>
    <_>
      <rect>
        15 6 3 1</rect></_>
    <_>
      <rect>
        15 11 2 2</rect></_>
    <_>
      <rect>
        15 20 1 1</rect></_>
    <_>
      <rect>
        15 20 1 2</rect></_>
    <_>
      <rect>
        16 0 5 4</rect></_>
    <_>
      <rect>
        16 9 3 3</rect></_>
    <_>
      <rect>
        17 0 6 6</rect></_>
    <_>
      <rect>
        18 0 4 2</rect></_>
    <_>
      <rect>
        18 3 3 3</rect></_>
    <_>
      <rect>
        18 4 4 2</rect></_>
    <_>
      <rect>
        18 6 2 1</rect></_>
    <_>
      <rect>
        18 9 2 2</rect></_>
    <_>
      <rect>
        18 29 1 1</rect></_>
    <_>
      <rect>
        19 0 6 4</rect></_>
    <_>
      <rect>
        19 10 3 1</rect></_>
    <_>
      <rect>
        19 28 7 4</rect></_>
    <_>
      <rect>
        20 24 2 2</rect></_>
    <_>
      <rect>
        20 28 1 2</rect></_>
    <_>
      <rect>
        20 28 2 2</rect></_>
    <_>
      <rect>
        21 11 2 2</rect></_>
    <_>
      <rect>
        22 1 4 2</rect></_>
    <_>
      <rect>
        22 2 6 4</rect></_>
    <_>
      <rect>
        22 22 1 2</rect></_>
    <_>
      <rect>
        23 19 2 2</rect></_>
    <_>
      <rect>
        24 0 1 2</rect></_>
    <_>
      <rect>
        24 1 4 3</rect></_>
    <_>
      <rect>
        24 5 1 2</rect></_>
    <_>
      <rect>
        25 0 5 8</rect></_>
    <_>
      <rect>
        25 1 5 5</rect></_>
    <_>
      <rect>
        25 29 5 2</rect></_>
    <_>
      <rect>
        26 0 3 5</rect></_>
    <_>
      <rect>
        26 5 2 3</rect></_>
    <_>
      <rect>
        27 11 2 3</rect></_>
    <_>
      <rect>
        27 16 4 4</rect></_>
    <_>
      <rect>
        27 28 4 4</rect></_>
    <_>
      <rect>
        28 0 4 13</rect></_>
    <_>
      <rect>
        28 1 4 11</rect></_>
    <_>
      <rect>
        28 2 4 7</rect></_>
    <_>
      <rect>
        28 5 4 11</rect></_>
    <_>
      <rect>
        28 6 3 2</rect></_>
    <_>
      <rect>
        28 10 4 3</rect></_>
    <_>
      <rect>
        28 19 4 4</rect></_>
    <_>
      <rect>
        29 6 2 1</rect></_>
    <_>
      <rect>
        29 6 3 3</rect></_>
    <_>
      <rect>
        29 16 1 2</rect></_>
    <_>
      <rect>
        29 30 1 1</rect></_>
    <_>
      <rect>
        30 12 1 2</rect></_>
    <_>
      <rect>
        30 26 1 1</rect></_>
    <_>
      <rect>
        31 2 3 9</rect></_>
    <_>
      <rect>
        31 8 3 6</rect></_>
    <_>
      <rect>
        31 10 3 4</rect></_>
    <_>
      <rect>
        31 10 3 8</rect></_>
    <_>
      <rect>
        31 20 3 5</rect></_>
    <_>
      <rect>
        32 6 1 3</rect></_>
    <_>
      <rect>
        32 26 2 1</rect></_>
    <_>
      <rect>
        33 1 2 10</rect></_>
    <_>
      <rect>
        33 8 2 5</rect></_>
    <_>
      <rect>
        33 28 1 1</rect></_>
    <_>
      <rect>
        34 8 2 8</rect></_>
    <_>
      <rect>
        34 36 2 1</rect></_></features></cascade>
</opencv_storage>
