<?xml version="1.0"?>
<opencv_storage>
<stage10>
  <maxWeakCount>7</maxWeakCount>
  <stageThreshold>-9.0076738595962524e-01</stageThreshold>
  <weakClassifiers>
    <_>
      <internalNodes>
        0 -1 7254 -449315845 -297627622 -1794928485 -249868159
        -1224410997 -132513142 -1416892285 -643833149</internalNodes>
      <leafValues>
        -5.3993612527847290e-01 4.1568204760551453e-01</leafValues></_>
    <_>
      <internalNodes>
        0 -1 65087 -743193641 45342727 1442934806 1193181555 -1333672721
        -527892472 -531893771 -839124481</internalNodes>
      <leafValues>
        -4.0483793616294861e-01 5.2467727661132812e-01</leafValues></_>
    <_>
      <internalNodes>
        0 -1 63425 -292555905 -879656509 17007330 -488648383 -1077699771
        -249038837 -345314975 2096955381</internalNodes>
      <leafValues>
        -6.2759721279144287e-01 3.0887418985366821e-01</leafValues></_>
    <_>
      <internalNodes>
        0 -1 2487 -784075974 -661402665 49288 2027168018 143114755
        -33382390 -1065113045 2004016951</internalNodes>
      <leafValues>
        -4.7961843013763428e-01 4.2413800954818726e-01</leafValues></_>
    <_>
      <internalNodes>
        0 -1 49468 -624181243 1362203731 -1879043885 -586573547 3785209
        -671055336 -1711263317 -133572529</internalNodes>
      <leafValues>
        -4.2934092879295349e-01 4.2355117201805115e-01</leafValues></_>
    <_>
      <internalNodes>
        0 -1 3355 -78679179 55693703 -2059155367 -1331074201 2040752981
        1790285966 -200036557 -1149260945</internalNodes>
      <leafValues>
        -5.1395636796951294e-01 4.2793005704879761e-01</leafValues></_>
    <_>
      <internalNodes>
        0 -1 41460 871585663 801883461 -1820081965 445681957 -1736423107
        -91521018 -8306241 -1360249064</internalNodes>
      <leafValues>
        -5.9860038757324219e-01 3.6489558219909668e-01</leafValues></_></weakClassifiers></stage10>
</opencv_storage>
