<?xml version="1.0"?>
<opencv_storage>
<stage12>
  <maxWeakCount>7</maxWeakCount>
  <stageThreshold>-1.4395866394042969e+00</stageThreshold>
  <weakClassifiers>
    <_>
      <internalNodes>
        0 -1 64590 -2131508735 286331395 1073811459 1929445379 231564
        -1299545720 835240587 -456934453</internalNodes>
      <leafValues>
        -5.5115884542465210e-01 3.7290716171264648e-01</leafValues></_>
    <_>
      <internalNodes>
        0 -1 19112 -627584862 1901154619 -1876635401 -1139601263
        -1844921605 -1312225279 -2013167361 69437643</internalNodes>
      <leafValues>
        -5.6976926326751709e-01 3.3291622996330261e-01</leafValues></_>
    <_>
      <internalNodes>
        0 -1 11705 -202899969 -355274301 -1056725731 -220178748
        -205274353 -880050045 -1672901065 -186333099</internalNodes>
      <leafValues>
        -5.8194577693939209e-01 3.1126841902732849e-01</leafValues></_>
    <_>
      <internalNodes>
        0 -1 6369 1090764971 831750417 16863492 -1035958912 -1065312101
        1670021248 1208078520 821024226</internalNodes>
      <leafValues>
        -6.1019015312194824e-01 3.0244293808937073e-01</leafValues></_>
    <_>
      <internalNodes>
        0 -1 48102 -2117721257 -449107683 -1862217251 1850579359
        -1961255323 -79068157 -1962215211 2122118004</internalNodes>
      <leafValues>
        -6.2782996892929077e-01 3.0464556813240051e-01</leafValues></_>
    <_>
      <internalNodes>
        0 -1 974 558883301 1319518482 -1862205241 2136363026 2047033483
        515932160 806060739 -314343103</internalNodes>
      <leafValues>
        -6.0932421684265137e-01 2.6764544844627380e-01</leafValues></_>
    <_>
      <internalNodes>
        0 -1 64390 -512009729 -1344442011 1394185651 -1403055157
        -1148468501 -282944117 -475310271 1282788788</internalNodes>
      <leafValues>
        -6.5008074045181274e-01 2.5409004092216492e-01</leafValues></_></weakClassifiers></stage12>
</opencv_storage>
