<?xml version="1.0"?>
<opencv_storage>
<stage6>
  <maxWeakCount>7</maxWeakCount>
  <stageThreshold>-1.0448424816131592e+00</stageThreshold>
  <weakClassifiers>
    <_>
      <internalNodes>
        0 -1 132 -997725462 -753577131 -29272201 -45805245 -709580545
        -3503927 -1047994373 -138938109</internalNodes>
      <leafValues>
        -6.2540715932846069e-01 4.9383983016014099e-01</leafValues></_>
    <_>
      <internalNodes>
        0 -1 64852 -885791897 1912836099 1073742097 -368602165
        -1463136091 -2142699515 -2004691992 -855639809</internalNodes>
      <leafValues>
        -5.1873868703842163e-01 5.4314821958541870e-01</leafValues></_>
    <_>
      <internalNodes>
        0 -1 11390 -203423809 -488189865 1359577563 -163687980
        -375676197 1170901703 94627831 -998969147</internalNodes>
      <leafValues>
        -6.7960768938064575e-01 3.8105040788650513e-01</leafValues></_>
    <_>
      <internalNodes>
        0 -1 29391 -102762513 -654190261 -1841097917 -226311966
        -1061041777 -804287809 -208698973 -251863084</internalNodes>
      <leafValues>
        -5.5925530195236206e-01 4.3584862351417542e-01</leafValues></_>
    <_>
      <internalNodes>
        0 -1 39791 -956356607 -742834175 3216095 -767180229 -533562881
        -1324830709 -1446203459 -433741771</internalNodes>
      <leafValues>
        -6.7320525646209717e-01 3.6010813713073730e-01</leafValues></_>
    <_>
      <internalNodes>
        0 -1 966 -460435417 -188291840 16891907 -715898447 -930410361
        -1996259317 1887854699 -77341897</internalNodes>
      <leafValues>
        -4.4847431778907776e-01 5.2053606510162354e-01</leafValues></_>
    <_>
      <internalNodes>
        0 -1 27932 -1547961581 -476458806 805933139 1918792085
        -2138313489 -367881846 -1987174249 -855844143</internalNodes>
      <leafValues>
        -5.5735784769058228e-01 4.0408396720886230e-01</leafValues></_></weakClassifiers></stage6>
</opencv_storage>
