<?xml version="1.0"?>
<opencv_storage>
<stage9>
  <maxWeakCount>7</maxWeakCount>
  <stageThreshold>-9.9502211809158325e-01</stageThreshold>
  <weakClassifiers>
    <_>
      <internalNodes>
        0 -1 9948 -290783237 -16880211 -32787 -67108923 -4097 -285224963
        -33558529 -704645133</internalNodes>
      <leafValues>
        -4.8760330677032471e-01 5.4094290733337402e-01</leafValues></_>
    <_>
      <internalNodes>
        0 -1 62171 -2086667371 -1281391853 285245473 -536674301
        -905723660 -2088566776 1355995340 -860886577</internalNodes>
      <leafValues>
        -5.7870352268218994e-01 4.1829124093055725e-01</leafValues></_>
    <_>
      <internalNodes>
        0 -1 53540 -1023955089 -993672265 -1019095585 -927016673
        -71595913 -661954419 2027601781 2130704245</internalNodes>
      <leafValues>
        -5.4681891202926636e-01 3.6075118184089661e-01</leafValues></_>
    <_>
      <internalNodes>
        0 -1 27239 987169615 85463061 1100296363 236354439 -1870583681
        -610597631 -141835265 -1079370980</internalNodes>
      <leafValues>
        -4.7372302412986755e-01 4.3454432487487793e-01</leafValues></_>
    <_>
      <internalNodes>
        0 -1 14922 -348398753 -526991061 -1073667839 -730021629
        -1040178685 178487306 872579587 -168493211</internalNodes>
      <leafValues>
        -6.5843474864959717e-01 3.0488941073417664e-01</leafValues></_>
    <_>
      <internalNodes>
        0 -1 27470 -2037663822 -305082175 -788413163 1385269504
        -117393157 950012073 -343246449 -319209019</internalNodes>
      <leafValues>
        -5.9211003780364990e-01 3.5175940394401550e-01</leafValues></_>
    <_>
      <internalNodes>
        0 -1 58621 -630737333 2147446614 2080309102 1786769399 -25239636
        -36407681 1065279423 -492458273</internalNodes>
      <leafValues>
        -4.1733539104461670e-01 4.8769196867942810e-01</leafValues></_></weakClassifiers></stage9>
</opencv_storage>
