<?xml version="1.0"?>
<opencv_storage>
<stage18>
  <maxWeakCount>8</maxWeakCount>
  <stageThreshold>-1.2039330005645752e+00</stageThreshold>
  <weakClassifiers>
    <_>
      <internalNodes>
        0 -1 65828 268601888 16809984 128 65537 136 -2013265792 50331778
        -293350725</internalNodes>
      <leafValues>
        -5.7602179050445557e-01 4.1347709298133850e-01</leafValues></_>
    <_>
      <internalNodes>
        0 -1 6865 -1073692479 1368391681 16781588 -1795096576 268435635
        696254464 -1610612597 -1576861694</internalNodes>
      <leafValues>
        -5.3660547733306885e-01 4.5135471224784851e-01</leafValues></_>
    <_>
      <internalNodes>
        0 -1 62195 -1878482722 1358954497 1073741954 268435713
        -2138537944 -2139094974 65720 -1843167229</internalNodes>
      <leafValues>
        -5.0377243757247925e-01 4.6596223115921021e-01</leafValues></_>
    <_>
      <internalNodes>
        0 -1 2297 -1137758464 1349908325 -268435548 -1301741592
        1065326434 -1393098889 -41968343 -749666317</internalNodes>
      <leafValues>
        -4.7753691673278809e-01 5.4801577329635620e-01</leafValues></_>
    <_>
      <internalNodes>
        0 -1 14 -802093996 158926081 -1342394759 222080296 -2064505690
        -1801437328 779108013 1001080367</internalNodes>
      <leafValues>
        -4.4058343768119812e-01 5.8741748332977295e-01</leafValues></_>
    <_>
      <internalNodes>
        0 -1 60061 -1064695729 -1073741824 131201 33882112 33201
        16809984 -2013101943 -570261423</internalNodes>
      <leafValues>
        -5.7868039608001709e-01 4.4955483078956604e-01</leafValues></_>
    <_>
      <internalNodes>
        0 -1 6370 -519995371 1342521344 85 -1841299456 134234112
        -1610579948 -2011135896 -1730129397</internalNodes>
      <leafValues>
        -4.7679436206817627e-01 5.5366551876068115e-01</leafValues></_>
    <_>
      <internalNodes>
        0 -1 36046 1358976067 -503316464 -2147483631 -2105081792
        -2013232981 -528482288 134291584 2065465580</internalNodes>
      <leafValues>
        -6.3722640275955200e-01 4.0545934438705444e-01</leafValues></_></weakClassifiers></stage18>
</opencv_storage>
