<?xml version="1.0"?>
<opencv_storage>
<stage16>
  <maxWeakCount>9</maxWeakCount>
  <stageThreshold>-1.4066846370697021e+00</stageThreshold>
  <weakClassifiers>
    <_>
      <internalNodes>
        0 -1 37426 -1517233741 -934180207 -753827425 1464178889
        -615871825 -592074611 -2088199173 -827750223</internalNodes>
      <leafValues>
        -5.0780439376831055e-01 3.8800904154777527e-01</leafValues></_>
    <_>
      <internalNodes>
        0 -1 64848 1674818143 1360204310 67108883 1082261571 403165697
        939655170 679721352 -262198549</internalNodes>
      <leafValues>
        -5.4192060232162476e-01 3.2684919238090515e-01</leafValues></_>
    <_>
      <internalNodes>
        0 -1 32684 1783867441 2064777385 1208025589 -764854052
        -1979610949 -1149108080 -1690267345 -1394498953</internalNodes>
      <leafValues>
        -4.8732540011405945e-01 3.2721421122550964e-01</leafValues></_>
    <_>
      <internalNodes>
        0 -1 50225 -997604593 -467857103 76567481 -972865319 -1744131989
        -133723520 146454561 1687212288</internalNodes>
      <leafValues>
        -7.2131735086441040e-01 2.6689398288726807e-01</leafValues></_>
    <_>
      <internalNodes>
        0 -1 61807 -766000765 1045677889 81984 -1476050857 -1593800701
        -1258061440 1149272069 551005037</internalNodes>
      <leafValues>
        -5.1276773214340210e-01 3.2014319300651550e-01</leafValues></_>
    <_>
      <internalNodes>
        0 -1 55595 -741347045 -1241268029 1107312649 -1809333945
        -2121564017 -1710733029 28019209 1545666164</internalNodes>
      <leafValues>
        -7.5348657369613647e-01 2.1385025978088379e-01</leafValues></_>
    <_>
      <internalNodes>
        0 -1 21559 -1654822953 -1282211809 -939453317 -1094559265
        740303645 -275709822 -741604834 -1432084506</internalNodes>
      <leafValues>
        -4.8757886886596680e-01 3.1539317965507507e-01</leafValues></_>
    <_>
      <internalNodes>
        0 -1 3247 1078022603 1002635523 -1862188783 83902482 293601343
        1402503187 25725055 2070042978</internalNodes>
      <leafValues>
        -5.1449090242385864e-01 3.1973505020141602e-01</leafValues></_>
    <_>
      <internalNodes>
        0 -1 20256 -514461285 1142554714 20615 1578602517 -536313335
        -1465843704 1124925731 -857935415</internalNodes>
      <leafValues>
        -5.1885038614273071e-01 3.5287347435951233e-01</leafValues></_></weakClassifiers></stage16>
</opencv_storage>
