<?xml version="1.0"?>
<opencv_storage>
<stage19>
  <maxWeakCount>7</maxWeakCount>
  <stageThreshold>-1.6213297843933105e+00</stageThreshold>
  <weakClassifiers>
    <_>
      <internalNodes>
        0 -1 57306 -738212230 -1653704722 -16767 1044347995 -1101211249
        -679706753 -327924001 -1842852857</internalNodes>
      <leafValues>
        -5.1559162139892578e-01 6.7976278066635132e-01</leafValues></_>
    <_>
      <internalNodes>
        0 -1 145 1343226016 293601296 65536 285212688 822083800 524288
        137 1359085576</internalNodes>
      <leafValues>
        -7.0158201456069946e-01 4.5574274659156799e-01</leafValues></_>
    <_>
      <internalNodes>
        0 -1 16098 -1040170871 -2080309055 257 1074069504 26 2
        -2146926583 -1182792821</internalNodes>
      <leafValues>
        -5.0727123022079468e-01 6.4860028028488159e-01</leafValues></_>
    <_>
      <internalNodes>
        0 -1 66507 694521028 -278462722 -65810 -287297562 1325268417
        2130706431 2130607984 1292094919</internalNodes>
      <leafValues>
        -4.7766885161399841e-01 6.9925546646118164e-01</leafValues></_>
    <_>
      <internalNodes>
        0 -1 34738 217297 286261249 128 403046401 16777224 134742032
        -1610577751 -1635725312</internalNodes>
      <leafValues>
        -5.3809309005737305e-01 6.4144355058670044e-01</leafValues></_>
    <_>
      <internalNodes>
        0 -1 63655 -1862123511 34603009 -1744830445 -2129592279
        -2147482486 805437440 -2147483648 814030928</internalNodes>
      <leafValues>
        -6.0193651914596558e-01 5.5636954307556152e-01</leafValues></_>
    <_>
      <internalNodes>
        0 -1 899 285282312 1074855936 1 1476460572 32768 537935872
        -2147483637 1090584577</internalNodes>
      <leafValues>
        -6.3564747571945190e-01 5.5190616846084595e-01</leafValues></_></weakClassifiers></stage19>
</opencv_storage>
