<?xml version="1.0"?>
<opencv_storage>
<stage17>
  <maxWeakCount>9</maxWeakCount>
  <stageThreshold>-9.6829092502593994e-01</stageThreshold>
  <weakClassifiers>
    <_>
      <internalNodes>
        0 -1 54458 -419502737 2042560174 -293962133 -1048965 -25370744
        653319549 2088521435 -768369425</internalNodes>
      <leafValues>
        -4.2004969716072083e-01 5.6739813089370728e-01</leafValues></_>
    <_>
      <internalNodes>
        0 -1 37 1342210072 -1069383552 65537 -2129657847 67786
        -2147417984 -2113929214 1444119139</internalNodes>
      <leafValues>
        -5.3402906656265259e-01 3.7354406714439392e-01</leafValues></_>
    <_>
      <internalNodes>
        0 -1 62026 1425538111 -293601419 -16846993 2146391798 -864097172
        1835425780 2113862911 -219021313</internalNodes>
      <leafValues>
        -3.9583930373191833e-01 4.6926438808441162e-01</leafValues></_>
    <_>
      <internalNodes>
        0 -1 10077 1629745296 1108361232 16777241 352637972 1879228586
        1611145216 -536313205 -2085887471</internalNodes>
      <leafValues>
        -4.9968883395195007e-01 3.6757984757423401e-01</leafValues></_>
    <_>
      <internalNodes>
        0 -1 52649 1674252883 331415587 -2147418096 -1834860544
        -520060757 -510943152 1677846801 2127311585</internalNodes>
      <leafValues>
        -5.6624519824981689e-01 3.5012558102607727e-01</leafValues></_>
    <_>
      <internalNodes>
        0 -1 47967 1753139 -795803647 -2147413987 1879248901 -2004833607
        -2147483640 545884585 -91979259</internalNodes>
      <leafValues>
        -4.3612816929817200e-01 4.5907896757125854e-01</leafValues></_>
    <_>
      <internalNodes>
        0 -1 36446 1359593627 -1861681086 65673 1073748227 536938499
        -1945567104 571082752 1477190072</internalNodes>
      <leafValues>
        -6.9298487901687622e-01 2.9916569590568542e-01</leafValues></_>
    <_>
      <internalNodes>
        0 -1 2659 -1790910305 -784285693 28 882508035 -2138406912
        -1744306166 -2147450870 -242776009</internalNodes>
      <leafValues>
        -4.6565887331962585e-01 4.3394932150840759e-01</leafValues></_>
    <_>
      <internalNodes>
        0 -1 66817 -2142099620 16810121 -1040121523 605039065
        -1601699827 2056257668 -2138537821 -2006529463</internalNodes>
      <leafValues>
        -5.7198369503021240e-01 3.3994460105895996e-01</leafValues></_></weakClassifiers></stage17>
</opencv_storage>
